digraph Tree {
node [shape=box, style="filled", color="black", fontname="helvetica"] ;
edge [fontname="helvetica"] ;
0 [label="left <= -0.5\ngini = 0.438\nsamples = 3014650\nvalue = [3290581, 1395776, 83643]", fillcolor="#f0b890"] ;
1 [label="right <= -0.5\ngini = 0.006\nsamples = 2079052\nvalue = [3280029, 10676, 0]", fillcolor="#e5813a"] ;
0 -> 1 [labeldistance=2.5, labelangle=45, headlabel="True"] ;
2 [label="gini = 0.0\nsamples = 2065512\nvalue = [3269243, 0, 0]", fillcolor="#e58139"] ;
1 -> 2 ;
3 [label="x_input <= -0.5\ngini = 0.5\nsamples = 13540\nvalue = [10786, 10676, 0]", fillcolor="#fffefd"] ;
1 -> 3 ;
4 [label="gini = 0.0\nsamples = 6841\nvalue = [10786, 0, 0]", fillcolor="#e58139"] ;
3 -> 4 ;
5 [label="gini = 0.0\nsamples = 6699\nvalue = [0, 10676, 0]", fillcolor="#39e581"] ;
3 -> 5 ;
6 [label="left <= 0.5\ngini = 0.12\nsamples = 935598\nvalue = [10552, 1385100, 83643]", fillcolor="#46e78a"] ;
0 -> 6 [labeldistance=2.5, labelangle=-45, headlabel="False"] ;
7 [label="bottom_right <= -0.5\ngini = 0.023\nsamples = 885755\nvalue = [10552, 1384013, 5725]", fillcolor="#3be582"] ;
6 -> 7 ;
8 [label="top_right <= -0.5\ngini = 0.48\nsamples = 14700\nvalue = [9264, 13951, 0]", fillcolor="#bcf6d5"] ;
7 -> 8 ;
9 [label="bottom_left <= -0.5\ngini = 0.422\nsamples = 7975\nvalue = [8769, 3809, 0]", fillcolor="#f0b88f"] ;
8 -> 9 ;
10 [label="gini = 0.0\nsamples = 2423\nvalue = [3849, 0, 0]", fillcolor="#e58139"] ;
9 -> 10 ;
11 [label="top_left <= -0.5\ngini = 0.492\nsamples = 5552\nvalue = [4920, 3809, 0]", fillcolor="#f9e3d2"] ;
9 -> 11 ;
12 [label="gini = 0.0\nsamples = 698\nvalue = [1141, 0, 0]", fillcolor="#e58139"] ;
11 -> 12 ;
13 [label="x_input <= -0.5\ngini = 0.5\nsamples = 4854\nvalue = [3779, 3809, 0]", fillcolor="#fdfffe"] ;
11 -> 13 ;
14 [label="gini = 0.0\nsamples = 2404\nvalue = [3779, 0, 0]", fillcolor="#e58139"] ;
13 -> 14 ;
15 [label="gini = 0.0\nsamples = 2450\nvalue = [0, 3809, 0]", fillcolor="#39e581"] ;
13 -> 15 ;
16 [label="right <= -0.5\ngini = 0.089\nsamples = 6725\nvalue = [495, 10142, 0]", fillcolor="#43e687"] ;
8 -> 16 ;
17 [label="bottom_left <= -0.5\ngini = 0.182\nsamples = 3088\nvalue = [495, 4385, 0]", fillcolor="#4fe88f"] ;
16 -> 17 ;
18 [label="x_input <= -0.5\ngini = 0.5\nsamples = 651\nvalue = [495, 526, 0]", fillcolor="#f3fdf8"] ;
17 -> 18 ;
19 [label="gini = 0.0\nsamples = 316\nvalue = [495, 0, 0]", fillcolor="#e58139"] ;
18 -> 19 ;
20 [label="gini = 0.0\nsamples = 335\nvalue = [0, 526, 0]", fillcolor="#39e581"] ;
18 -> 20 ;
21 [label="gini = 0.0\nsamples = 2437\nvalue = [0, 3859, 0]", fillcolor="#39e581"] ;
17 -> 21 ;
22 [label="gini = 0.0\nsamples = 3637\nvalue = [0, 5757, 0]", fillcolor="#39e581"] ;
16 -> 22 ;
23 [label="bottom_right <= 0.5\ngini = 0.01\nsamples = 871055\nvalue = [1288, 1370062, 5725]", fillcolor="#3ae582"] ;
7 -> 23 ;
24 [label="x_input <= -0.5\ngini = 0.005\nsamples = 867751\nvalue = [1288, 1368456, 2128]", fillcolor="#39e581"] ;
23 -> 24 ;
25 [label="gini = 0.0\nsamples = 831\nvalue = [1288, 0, 0]", fillcolor="#e58139"] ;
24 -> 25 ;
26 [label="right <= 0.5\ngini = 0.003\nsamples = 866920\nvalue = [0, 1368456, 2128]", fillcolor="#39e581"] ;
24 -> 26 ;
27 [label="x_input <= 0.5\ngini = 0.002\nsamples = 866081\nvalue = [0, 1368121, 1126]", fillcolor="#39e581"] ;
26 -> 27 ;
28 [label="top_right <= 0.5\ngini = 0.001\nsamples = 865913\nvalue = [0, 1368121, 852]", fillcolor="#39e581"] ;
27 -> 28 ;
29 [label="gini = 0.001\nsamples = 865148\nvalue = [0, 1367151, 614]", fillcolor="#39e581"] ;
28 -> 29 ;
30 [label="gini = 0.316\nsamples = 765\nvalue = [0, 970, 238]", fillcolor="#6aeba0"] ;
28 -> 30 ;
31 [label="gini = 0.0\nsamples = 168\nvalue = [0, 0, 274]", fillcolor="#8139e5"] ;
27 -> 31 ;
32 [label="top <= 0.5\ngini = 0.376\nsamples = 839\nvalue = [0, 335, 1002]", fillcolor="#ab7bee"] ;
26 -> 32 ;
33 [label="top_right <= 0.5\ngini = 0.452\nsamples = 350\nvalue = [0, 192, 364]", fillcolor="#c3a1f3"] ;
32 -> 33 ;
34 [label="gini = 0.49\nsamples = 122\nvalue = [0, 83, 111]", fillcolor="#dfcdf8"] ;
33 -> 34 ;
35 [label="gini = 0.421\nsamples = 228\nvalue = [0, 109, 253]", fillcolor="#b78ef0"] ;
33 -> 35 ;
36 [label="x_input <= 0.5\ngini = 0.299\nsamples = 489\nvalue = [0, 143, 638]", fillcolor="#9d65eb"] ;
32 -> 36 ;
37 [label="gini = 0.411\nsamples = 306\nvalue = [0, 143, 351]", fillcolor="#b48af0"] ;
36 -> 37 ;
38 [label="gini = 0.0\nsamples = 183\nvalue = [0, 0, 287]", fillcolor="#8139e5"] ;
36 -> 38 ;
39 [label="x_input <= 0.5\ngini = 0.427\nsamples = 3304\nvalue = [0, 1606, 3597]", fillcolor="#b991f1"] ;
23 -> 39 ;
40 [label="top_left <= 0.5\ngini = 0.491\nsamples = 1760\nvalue = [0, 1606, 1225]", fillcolor="#d0f9e1"] ;
39 -> 40 ;
41 [label="bottom <= 0.5\ngini = 0.486\nsamples = 1639\nvalue = [0, 1546, 1101]", fillcolor="#c6f8db"] ;
40 -> 41 ;
42 [label="right <= 0.5\ngini = 0.397\nsamples = 955\nvalue = [0, 1139, 429]", fillcolor="#84efb0"] ;
41 -> 42 ;
43 [label="gini = 0.039\nsamples = 579\nvalue = [0, 927, 19]", fillcolor="#3de684"] ;
42 -> 43 ;
44 [label="gini = 0.449\nsamples = 376\nvalue = [0, 212, 410]", fillcolor="#c29ff2"] ;
42 -> 44 ;
45 [label="top <= 0.5\ngini = 0.47\nsamples = 684\nvalue = [0, 407, 672]", fillcolor="#cdb1f5"] ;
41 -> 45 ;
46 [label="gini = 0.47\nsamples = 623\nvalue = [0, 369, 607]", fillcolor="#ceb1f5"] ;
45 -> 46 ;
47 [label="gini = 0.466\nsamples = 61\nvalue = [0, 38, 65]", fillcolor="#cbadf4"] ;
45 -> 47 ;
48 [label="top <= 0.5\ngini = 0.44\nsamples = 121\nvalue = [0, 60, 124]", fillcolor="#be99f2"] ;
40 -> 48 ;
49 [label="right <= 0.5\ngini = 0.463\nsamples = 16\nvalue = [0, 14, 8]", fillcolor="#aaf4c9"] ;
48 -> 49 ;
50 [label="gini = 0.219\nsamples = 5\nvalue = [0, 7, 1]", fillcolor="#55e993"] ;
49 -> 50 ;
51 [label="gini = 0.5\nsamples = 11\nvalue = [0, 7, 7]", fillcolor="#ffffff"] ;
49 -> 51 ;
52 [label="right <= 0.5\ngini = 0.407\nsamples = 105\nvalue = [0, 46, 116]", fillcolor="#b388ef"] ;
48 -> 52 ;
53 [label="gini = 0.498\nsamples = 12\nvalue = [0, 8, 9]", fillcolor="#f1e9fc"] ;
52 -> 53 ;
54 [label="gini = 0.387\nsamples = 93\nvalue = [0, 38, 107]", fillcolor="#ae7fee"] ;
52 -> 54 ;
55 [label="gini = 0.0\nsamples = 1544\nvalue = [0, 0, 2372]", fillcolor="#8139e5"] ;
39 -> 55 ;
56 [label="top_right <= 0.5\ngini = 0.027\nsamples = 49843\nvalue = [0, 1087, 77918]", fillcolor="#833ce5"] ;
6 -> 56 ;
57 [label="bottom_left <= 0.5\ngini = 0.255\nsamples = 3356\nvalue = [0, 797, 4506]", fillcolor="#975cea"] ;
56 -> 57 ;
58 [label="x_input <= 0.5\ngini = 0.412\nsamples = 650\nvalue = [0, 296, 725]", fillcolor="#b48af0"] ;
57 -> 58 ;
59 [label="right <= 0.5\ngini = 0.467\nsamples = 507\nvalue = [0, 296, 500]", fillcolor="#ccaef4"] ;
58 -> 59 ;
60 [label="bottom <= 0.5\ngini = 0.466\nsamples = 504\nvalue = [0, 291, 498]", fillcolor="#cbadf4"] ;
59 -> 60 ;
61 [label="top <= 0.5\ngini = 0.464\nsamples = 489\nvalue = [0, 279, 483]", fillcolor="#caabf4"] ;
60 -> 61 ;
62 [label="gini = 0.459\nsamples = 256\nvalue = [0, 143, 258]", fillcolor="#c7a7f3"] ;
61 -> 62 ;
63 [label="gini = 0.47\nsamples = 233\nvalue = [0, 136, 225]", fillcolor="#cdb1f5"] ;
61 -> 63 ;
64 [label="top_left <= 0.5\ngini = 0.494\nsamples = 15\nvalue = [0, 12, 15]", fillcolor="#e6d7fa"] ;
60 -> 64 ;
65 [label="gini = 0.498\nsamples = 9\nvalue = [0, 8, 9]", fillcolor="#f1e9fc"] ;
64 -> 65 ;
66 [label="gini = 0.48\nsamples = 6\nvalue = [0, 4, 6]", fillcolor="#d5bdf6"] ;
64 -> 66 ;
67 [label="bottom_right <= 0.5\ngini = 0.408\nsamples = 3\nvalue = [0, 5, 2]", fillcolor="#88efb3"] ;
59 -> 67 ;
68 [label="gini = 0.0\nsamples = 1\nvalue = [0, 4, 0]", fillcolor="#39e581"] ;
67 -> 68 ;
69 [label="top_left <= 0.5\ngini = 0.444\nsamples = 2\nvalue = [0, 1, 2]", fillcolor="#c09cf2"] ;
67 -> 69 ;
70 [label="gini = 0.0\nsamples = 1\nvalue = [0, 1, 0]", fillcolor="#39e581"] ;
69 -> 70 ;
71 [label="gini = 0.0\nsamples = 1\nvalue = [0, 0, 2]", fillcolor="#8139e5"] ;
69 -> 71 ;
72 [label="gini = 0.0\nsamples = 143\nvalue = [0, 0, 225]", fillcolor="#8139e5"] ;
58 -> 72 ;
73 [label="x_input <= 0.5\ngini = 0.207\nsamples = 2706\nvalue = [0, 501, 3781]", fillcolor="#9253e8"] ;
57 -> 73 ;
74 [label="right <= 0.5\ngini = 0.457\nsamples = 904\nvalue = [0, 501, 914]", fillcolor="#c6a6f3"] ;
73 -> 74 ;
75 [label="bottom <= 0.5\ngini = 0.458\nsamples = 802\nvalue = [0, 446, 812]", fillcolor="#c6a6f3"] ;
74 -> 75 ;
76 [label="top <= 0.5\ngini = 0.448\nsamples = 336\nvalue = [0, 179, 350]", fillcolor="#c19ef2"] ;
75 -> 76 ;
77 [label="gini = 0.452\nsamples = 269\nvalue = [0, 145, 275]", fillcolor="#c3a1f3"] ;
76 -> 77 ;
78 [label="gini = 0.429\nsamples = 67\nvalue = [0, 34, 75]", fillcolor="#ba93f1"] ;
76 -> 78 ;
79 [label="top <= 0.5\ngini = 0.464\nsamples = 466\nvalue = [0, 267, 462]", fillcolor="#caabf4"] ;
75 -> 79 ;
80 [label="gini = 0.463\nsamples = 409\nvalue = [0, 233, 408]", fillcolor="#c9aaf4"] ;
79 -> 80 ;
81 [label="gini = 0.474\nsamples = 57\nvalue = [0, 34, 54]", fillcolor="#d0b6f5"] ;
79 -> 81 ;
82 [label="bottom <= 0.5\ngini = 0.455\nsamples = 102\nvalue = [0, 55, 102]", fillcolor="#c5a4f3"] ;
74 -> 82 ;
83 [label="top_left <= 0.5\ngini = 0.375\nsamples = 8\nvalue = [0, 3, 9]", fillcolor="#ab7bee"] ;
82 -> 83 ;
84 [label="gini = 0.444\nsamples = 7\nvalue = [0, 3, 6]", fillcolor="#c09cf2"] ;
83 -> 84 ;
85 [label="gini = 0.0\nsamples = 1\nvalue = [0, 0, 3]", fillcolor="#8139e5"] ;
83 -> 85 ;
86 [label="bottom_right <= 0.5\ngini = 0.46\nsamples = 94\nvalue = [0, 52, 93]", fillcolor="#c7a8f4"] ;
82 -> 86 ;
87 [label="gini = 0.5\nsamples = 2\nvalue = [0, 1, 1]", fillcolor="#ffffff"] ;
86 -> 87 ;
88 [label="gini = 0.459\nsamples = 92\nvalue = [0, 51, 92]", fillcolor="#c7a7f3"] ;
86 -> 88 ;
89 [label="gini = 0.0\nsamples = 1802\nvalue = [0, 0, 2867]", fillcolor="#8139e5"] ;
73 -> 89 ;
90 [label="x_input <= 0.5\ngini = 0.008\nsamples = 46487\nvalue = [0, 290, 73412]", fillcolor="#813ae5"] ;
56 -> 90 ;
91 [label="right <= 0.5\ngini = 0.463\nsamples = 501\nvalue = [0, 290, 507]", fillcolor="#c9aaf4"] ;
90 -> 91 ;
92 [label="top_left <= 0.5\ngini = 0.476\nsamples = 214\nvalue = [0, 136, 212]", fillcolor="#d2b8f6"] ;
91 -> 92 ;
93 [label="bottom <= 0.5\ngini = 0.469\nsamples = 13\nvalue = [0, 15, 9]", fillcolor="#b0f5cd"] ;
92 -> 93 ;
94 [label="top <= 0.5\ngini = 0.488\nsamples = 11\nvalue = [0, 11, 8]", fillcolor="#c9f8dd"] ;
93 -> 94 ;
95 [label="gini = 0.497\nsamples = 6\nvalue = [0, 6, 7]", fillcolor="#ede3fb"] ;
94 -> 95 ;
96 [label="gini = 0.278\nsamples = 5\nvalue = [0, 5, 1]", fillcolor="#61ea9a"] ;
94 -> 96 ;
97 [label="gini = 0.32\nsamples = 2\nvalue = [0, 4, 1]", fillcolor="#6aeca0"] ;
93 -> 97 ;
98 [label="top <= 0.5\ngini = 0.468\nsamples = 201\nvalue = [0, 121, 203]", fillcolor="#ccaff4"] ;
92 -> 98 ;
99 [label="bottom_left <= 0.5\ngini = 0.474\nsamples = 24\nvalue = [0, 17, 27]", fillcolor="#d0b6f5"] ;
98 -> 99 ;
100 [label="gini = 0.48\nsamples = 18\nvalue = [0, 14, 21]", fillcolor="#d5bdf6"] ;
99 -> 100 ;
101 [label="gini = 0.444\nsamples = 6\nvalue = [0, 3, 6]", fillcolor="#c09cf2"] ;
99 -> 101 ;
102 [label="bottom_left <= 0.5\ngini = 0.467\nsamples = 177\nvalue = [0, 104, 176]", fillcolor="#cbaef4"] ;
98 -> 102 ;
103 [label="gini = 0.483\nsamples = 76\nvalue = [0, 51, 74]", fillcolor="#d8c1f7"] ;
102 -> 103 ;
104 [label="gini = 0.45\nsamples = 101\nvalue = [0, 53, 102]", fillcolor="#c2a0f3"] ;
102 -> 104 ;
105 [label="top <= 0.5\ngini = 0.451\nsamples = 287\nvalue = [0, 154, 295]", fillcolor="#c3a0f3"] ;
91 -> 105 ;
106 [label="bottom <= 0.5\ngini = 0.402\nsamples = 53\nvalue = [0, 22, 57]", fillcolor="#b285ef"] ;
105 -> 106 ;
107 [label="bottom_left <= 0.5\ngini = 0.211\nsamples = 17\nvalue = [0, 3, 22]", fillcolor="#9254e9"] ;
106 -> 107 ;
108 [label="gini = 0.305\nsamples = 11\nvalue = [0, 3, 13]", fillcolor="#9e67eb"] ;
107 -> 108 ;
109 [label="gini = 0.0\nsamples = 6\nvalue = [0, 0, 9]", fillcolor="#8139e5"] ;
107 -> 109 ;
110 [label="bottom_left <= 0.5\ngini = 0.456\nsamples = 36\nvalue = [0, 19, 35]", fillcolor="#c5a4f3"] ;
106 -> 110 ;
111 [label="gini = 0.0\nsamples = 1\nvalue = [0, 1, 0]", fillcolor="#39e581"] ;
110 -> 111 ;
112 [label="gini = 0.449\nsamples = 35\nvalue = [0, 18, 35]", fillcolor="#c29ff2"] ;
110 -> 112 ;
113 [label="bottom_right <= 0.5\ngini = 0.459\nsamples = 234\nvalue = [0, 132, 238]", fillcolor="#c7a7f3"] ;
105 -> 113 ;
114 [label="top_left <= 0.5\ngini = 0.485\nsamples = 84\nvalue = [0, 54, 77]", fillcolor="#d9c4f7"] ;
113 -> 114 ;
115 [label="gini = 0.375\nsamples = 2\nvalue = [0, 3, 1]", fillcolor="#7beeab"] ;
114 -> 115 ;
116 [label="gini = 0.481\nsamples = 82\nvalue = [0, 51, 76]", fillcolor="#d6bef6"] ;
114 -> 116 ;
117 [label="top_left <= 0.5\ngini = 0.44\nsamples = 150\nvalue = [0, 78, 161]", fillcolor="#be99f2"] ;
113 -> 117 ;
118 [label="gini = 0.42\nsamples = 20\nvalue = [0, 9, 21]", fillcolor="#b78ef0"] ;
117 -> 118 ;
119 [label="gini = 0.442\nsamples = 130\nvalue = [0, 69, 140]", fillcolor="#bf9bf2"] ;
117 -> 119 ;
120 [label="gini = 0.0\nsamples = 45986\nvalue = [0, 0, 72905]", fillcolor="#8139e5"] ;
90 -> 120 ;
}