digraph Tree {
node [shape=box, style="filled", color="black", fontname="helvetica"] ;
edge [fontname="helvetica"] ;
0 [label="top <= 0.5\ngini = 0.271\nsamples = 24870\nvalue = [32854, 6346]", fillcolor="#ea995f"] ;
1 [label="bottom <= 0.5\ngini = 0.22\nsamples = 20876\nvalue = [28749, 4129]", fillcolor="#e99355"] ;
0 -> 1 [labeldistance=2.5, labelangle=45, headlabel="True"] ;
2 [label="right <= 0.5\ngini = 0.151\nsamples = 17830\nvalue = [25733, 2315]", fillcolor="#e78c4b"] ;
1 -> 2 ;
3 [label="bottom_left <= 0.5\ngini = 0.099\nsamples = 16001\nvalue = [23854, 1319]", fillcolor="#e68844"] ;
2 -> 3 ;
4 [label="gini = 0.054\nsamples = 14409\nvalue = [22049, 633]", fillcolor="#e6853f"] ;
3 -> 4 ;
5 [label="gini = 0.399\nsamples = 1592\nvalue = [1805, 686]", fillcolor="#efb184"] ;
3 -> 5 ;
6 [label="top_left <= 0.5\ngini = 0.453\nsamples = 1829\nvalue = [1879, 996]", fillcolor="#f3c4a2"] ;
2 -> 6 ;
7 [label="gini = 0.429\nsamples = 1529\nvalue = [1660, 750]", fillcolor="#f1ba92"] ;
6 -> 7 ;
8 [label="gini = 0.498\nsamples = 300\nvalue = [219, 246]", fillcolor="#e9f4fc"] ;
6 -> 8 ;
9 [label="x_input <= 0.5\ngini = 0.469\nsamples = 3046\nvalue = [3016, 1814]", fillcolor="#f5cdb0"] ;
1 -> 9 ;
10 [label="left <= 0.5\ngini = 0.397\nsamples = 2021\nvalue = [2337, 877]", fillcolor="#efb083"] ;
9 -> 10 ;
11 [label="gini = 0.368\nsamples = 1497\nvalue = [1820, 585]", fillcolor="#edaa79"] ;
10 -> 11 ;
12 [label="gini = 0.461\nsamples = 524\nvalue = [517, 292]", fillcolor="#f4c8a9"] ;
10 -> 12 ;
13 [label="left <= 0.5\ngini = 0.487\nsamples = 1025\nvalue = [679, 937]", fillcolor="#c8e4f8"] ;
9 -> 13 ;
14 [label="gini = 0.431\nsamples = 651\nvalue = [325, 710]", fillcolor="#94caf1"] ;
13 -> 14 ;
15 [label="gini = 0.476\nsamples = 374\nvalue = [354, 227]", fillcolor="#f6d2b8"] ;
13 -> 15 ;
16 [label="bottom_right <= 0.5\ngini = 0.455\nsamples = 3994\nvalue = [4105, 2217]", fillcolor="#f3c5a4"] ;
0 -> 16 [labeldistance=2.5, labelangle=-45, headlabel="False"] ;
17 [label="x_input <= 0.5\ngini = 0.469\nsamples = 3071\nvalue = [3018, 1810]", fillcolor="#f5cdb0"] ;
16 -> 17 ;
18 [label="top_left <= 0.5\ngini = 0.392\nsamples = 2014\nvalue = [2313, 843]", fillcolor="#eeaf81"] ;
17 -> 18 ;
19 [label="gini = 0.342\nsamples = 1259\nvalue = [1538, 432]", fillcolor="#eca471"] ;
18 -> 19 ;
20 [label="gini = 0.453\nsamples = 755\nvalue = [775, 411]", fillcolor="#f3c4a2"] ;
18 -> 20 ;
21 [label="left <= 0.5\ngini = 0.488\nsamples = 1057\nvalue = [705, 967]", fillcolor="#c9e4f8"] ;
17 -> 21 ;
22 [label="gini = 0.438\nsamples = 643\nvalue = [333, 695]", fillcolor="#98ccf1"] ;
21 -> 22 ;
23 [label="gini = 0.488\nsamples = 414\nvalue = [372, 272]", fillcolor="#f8ddca"] ;
21 -> 23 ;
24 [label="bottom <= 0.5\ngini = 0.396\nsamples = 923\nvalue = [1087, 407]", fillcolor="#efb083"] ;
16 -> 24 ;
25 [label="left <= 0.5\ngini = 0.475\nsamples = 549\nvalue = [540, 343]", fillcolor="#f6d1b7"] ;
24 -> 25 ;
26 [label="gini = 0.5\nsamples = 398\nvalue = [319, 317]", fillcolor="#fffefe"] ;
25 -> 26 ;
27 [label="gini = 0.188\nsamples = 151\nvalue = [221, 26]", fillcolor="#e89050"] ;
25 -> 27 ;
28 [label="x_input <= 0.5\ngini = 0.188\nsamples = 374\nvalue = [547, 64]", fillcolor="#e89050"] ;
24 -> 28 ;
29 [label="gini = 0.176\nsamples = 197\nvalue = [297, 32]", fillcolor="#e88f4e"] ;
28 -> 29 ;
30 [label="gini = 0.201\nsamples = 177\nvalue = [250, 32]", fillcolor="#e89152"] ;
28 -> 30 ;
}